#Language model created by QuickLM on Mon Oct 29 10:48:49 EDT 2018
#Copyright (c) 1996-2010 Carnegie Mellon University and Alexander I. Rudnicky

#The model is in standard ARPA format, designed by Doug Paul while he was at MITRE.

#The code that was used to produce this language model is available in Open Source.
#Please visit http://www.speech.cs.cmu.edu/tools/ for more information

#The (fixed) discount mass is 0.5. The backoffs are computed using the ratio method.
#This model based on a corpus of 9 sentences and 14 words

\data\
ngram 1=14
ngram 2=21
ngram 3=16

\1-grams:
-0.8783 </s> -0.3010
-0.8783 <s> -0.2394
-1.8325 BACKWARD -0.2394
-1.8325 BALL -0.2394
-1.2304 DRIBBLE -0.2747
-1.8325 FIND -0.2946
-1.8325 FORWARD -0.2394
-1.8325 GOAL -0.2394
-1.8325 LEFT -0.2394
-1.8325 MOVE -0.2394
-1.8325 PENALTY -0.2394
-1.8325 RIGHT -0.2394
-1.5315 SCORE -0.2881
-1.8325 STOP -0.2394

\2-grams:
-0.6532 <s> DRIBBLE 0.0000
-1.2553 <s> FIND 0.0000
-1.2553 <s> MOVE 0.0000
-0.9542 <s> SCORE 0.0000
-1.2553 <s> STOP 0.0000
-0.3010 BACKWARD </s> -0.3010
-0.3010 BALL </s> -0.3010
-0.9031 DRIBBLE BACKWARD 0.0000
-0.9031 DRIBBLE FORWARD 0.0000
-0.9031 DRIBBLE LEFT 0.0000
-0.9031 DRIBBLE RIGHT 0.0000
-0.3010 FIND BALL 0.0000
-0.3010 FORWARD </s> -0.3010
-0.3010 GOAL </s> -0.3010
-0.3010 LEFT </s> -0.3010
-0.3010 MOVE </s> -0.3010
-0.3010 PENALTY </s> -0.3010
-0.3010 RIGHT </s> -0.3010
-0.6021 SCORE GOAL 0.0000
-0.6021 SCORE PENALTY 0.0000
-0.3010 STOP </s> -0.3010

\3-grams:
-0.9031 <s> DRIBBLE BACKWARD
-0.9031 <s> DRIBBLE FORWARD
-0.9031 <s> DRIBBLE LEFT
-0.9031 <s> DRIBBLE RIGHT
-0.3010 <s> FIND BALL
-0.3010 <s> MOVE </s>
-0.6021 <s> SCORE GOAL
-0.6021 <s> SCORE PENALTY
-0.3010 <s> STOP </s>
-0.3010 DRIBBLE BACKWARD </s>
-0.3010 DRIBBLE FORWARD </s>
-0.3010 DRIBBLE LEFT </s>
-0.3010 DRIBBLE RIGHT </s>
-0.3010 FIND BALL </s>
-0.3010 SCORE GOAL </s>
-0.3010 SCORE PENALTY </s>

\end\

