Language model created by QuickLM on Mon Dec  3 10:14:33 EST 2018
Copyright (c) 1996-2010 Carnegie Mellon University and Alexander I. Rudnicky

The model is in standard ARPA format, designed by Doug Paul while he was at MITRE.

The code that was used to produce this language model is available in Open Source.
Please visit http://www.speech.cs.cmu.edu/tools/ for more information

The (fixed) discount mass is 0.5. The backoffs are computed using the ratio method.
This model based on a corpus of 10 sentences and 15 words

\data\
ngram 1=15
ngram 2=23
ngram 3=17

\1-grams:
-0.8692 </s> -0.3010
-0.8692 <s> -0.2380
-1.8692 CIRCLE -0.2831
-1.8692 DIAMOND -0.2831
-1.3921 DRIBBLE -0.2831
-1.3921 DRILL -0.2380
-1.8692 FORWARD -0.2380
-1.8692 LEFT -0.2380
-1.8692 PENALTY -0.2380
-1.8692 RESUME -0.2380
-1.8692 RIGHT -0.2380
-1.8692 SCORE -0.2951
-1.8692 START -0.2380
-1.8692 STOP -0.2380
-1.8692 WEAVE -0.2831

\2-grams:
-1.3010 <s> CIRCLE 0.0000
-1.3010 <s> DIAMOND 0.0000
-0.8239 <s> DRIBBLE 0.0000
-1.3010 <s> RESUME 0.0000
-1.3010 <s> SCORE 0.0000
-1.3010 <s> START 0.0000
-1.3010 <s> STOP 0.0000
-1.3010 <s> WEAVE 0.0000
-0.3010 CIRCLE DRILL 0.0000
-0.3010 DIAMOND DRILL 0.0000
-0.7782 DRIBBLE FORWARD 0.0000
-0.7782 DRIBBLE LEFT 0.0000
-0.7782 DRIBBLE RIGHT 0.0000
-0.3010 DRILL </s> -0.3010
-0.3010 FORWARD </s> -0.3010
-0.3010 LEFT </s> -0.3010
-0.3010 PENALTY </s> -0.3010
-0.3010 RESUME </s> -0.3010
-0.3010 RIGHT </s> -0.3010
-0.3010 SCORE PENALTY 0.0000
-0.3010 START </s> -0.3010
-0.3010 STOP </s> -0.3010
-0.3010 WEAVE DRILL 0.0000

\3-grams:
-0.3010 <s> CIRCLE DRILL
-0.3010 <s> DIAMOND DRILL
-0.7782 <s> DRIBBLE FORWARD
-0.7782 <s> DRIBBLE LEFT
-0.7782 <s> DRIBBLE RIGHT
-0.3010 <s> RESUME </s>
-0.3010 <s> SCORE PENALTY
-0.3010 <s> START </s>
-0.3010 <s> STOP </s>
-0.3010 <s> WEAVE DRILL
-0.3010 CIRCLE DRILL </s>
-0.3010 DIAMOND DRILL </s>
-0.3010 DRIBBLE FORWARD </s>
-0.3010 DRIBBLE LEFT </s>
-0.3010 DRIBBLE RIGHT </s>
-0.3010 SCORE PENALTY </s>
-0.3010 WEAVE DRILL </s>

\end\
